{
  "weights": [
    [
      [
        0.056025211338108095,
        1.078007272607859,
        2.3908039874143436,
        -0.3540675199776416,
        -0.08452570975499138,
        -0.09032805854640519,
        -0.3458256872349759,
        0.4888481890244139,
        -0.38093101036063237,
        -0.7643441566023847,
        -0.7495472179567909,
        0.46121948126520396,
        1.153858479938384,
        -0.9825408770147565,
        -2.562454455063612,
        -0.08695825668673979
      ],
      [
        -0.38251986419995193,
        0.3905171005090152,
        -0.14401130052130914,
        -0.43520505630056994,
        -0.2041840011943703,
        -0.4945692833011346,
        -0.1075392875301742,
        -0.14957225829650647,
        -0.1088853721587901,
        0.582189809441711,
        -0.7525126613521652,
        0.6246741030487986,
        0.3390348843724151,
        -0.5971227570355235,
        0.06696154243686422,
        -0.22756811854709322
      ],
      [
        0.0390040527523702,
        0.6041579925214549,
        -0.08201530533545807,
        0.3946433402462632,
        -0.23754700780288385,
        -0.8590904789261573,
        -0.037454222894067156,
        -0.19126433629953882,
        -0.5422603138398465,
        0.2944025034246255,
        -0.3836954726793347,
        0.4316377479345089,
        0.13691029833635837,
        -0.18964348831419792,
        -0.005793807579393833,
        -0.03056839923265718
      ],
      [
        -0.415368188698603,
        -0.9292302530670521,
        0.2710765658875418,
        0.3706848862873533,
        0.7869955190431542,
        0.25794558594896183,
        -0.2222484828233757,
        0.5505795581715499,
        -0.9931805433072632,
        -0.7963849658746979,
        -0.4144073551979484,
        -0.8211182643539136,
        -0.4430484392132732,
        -0.10902789688822355,
        0.3882531782826852,
        0.16083835554091855
      ],
      [
        -0.6001383692389565,
        0.0708905474808973,
        -0.24164123618000832,
        0.31898688805960007,
        -0.8068912158741947,
        0.19771131562680783,
        0.021489258889290642,
        -0.510061377199075,
        -0.43185862160852334,
        0.45198805414767224,
        0.09904346498177376,
        0.5262946620009705,
        0.522207742716534,
        -0.5015867107720852,
        -0.09853165359602288,
        -0.9755014707224877
      ],
      [
        0.24710835349029742,
        0.05801681853569069,
        -0.006851405885338753,
        -0.40314053824182394,
        -0.09616218890276017,
        -0.4828184510251448,
        -0.0029078000875833615,
        0.2746705556499825,
        0.35194962853107914,
        -0.004593343079101287,
        -0.09575347709589697,
        -0.006124766104493893,
        0.01942775467413666,
        -0.03286383236043388,
        -0.013686807777000296,
        0.0816302354840408
      ],
      [
        -0.38268861502604756,
        0.21426321981024685,
        -0.0063584744014340625,
        -0.26354850625297604,
        -0.03269600887345306,
        -0.1819547445362001,
        0.07973780220389402,
        0.005521566177691477,
        -0.0715961985869801,
        0.056924389457567434,
        -0.14109881354869988,
        -0.1499485580623138,
        -0.01935569959680618,
        -0.2188628366413205,
        0.05211085416512015,
        -0.04831251952229998
      ],
      [
        0.12055397209078894,
        0.38357054277365915,
        0.07060140017678398,
        0.2516642173068737,
        0.21720986930109942,
        -0.38329901504209846,
        0.14073018077103633,
        0.044254144280197985,
        0.18007137604917836,
        0.04820910737461021,
        -0.5493503532466472,
        -0.2054208994475653,
        0.06940872094944713,
        0.0026980962855357683,
        0.08106598877291149,
        -0.022380854808672572
      ]
    ],
    [
      [
        -0.051459728097301705,
        -0.5796590657299506,
        -0.04678786473891211,
        0.7082337592494664,
        -0.3246959911388266,
        -0.06971621193986319,
        0.2303945780349986,
        -0.374489129156431
      ],
      [
        -0.5033934350443595,
        0.2590013831232138,
        0.32141397597348703,
        0.6649525152882463,
        0.6444952269789671,
        0.5920205995281408,
        -0.6582559083994799,
        0.06583469408846451
      ],
      [
        -1.6451299238669148,
        1.5037015725136376,
        -0.773189579466007,
        0.38410145789342665,
        -1.9559676493525893,
        2.846754875390682,
        -0.6343564665624165,
        -1.2040281062581353
      ],
      [
        -0.5123987537162642,
        -0.2970673144793429,
        0.31518478682006695,
        -0.24763257051461507,
        -0.025922384193724928,
        -0.16093907840887653,
        -0.010177782719858797,
        -0.5441576128496591
      ],
      [
        0.44847350689100335,
        -0.4004776624803201,
        0.5865868890450715,
        -0.22816439073366426,
        0.1783022925341779,
        -0.4284518177930854,
        0.5885144714697341,
        0.5948461903827218
      ],
      [
        -0.005598288340362771,
        -0.08305782664899064,
        0.38949876278061546,
        0.13765636992713906,
        0.3914969714606272,
        -0.03804282122584638,
        -0.38142863492607665,
        0.44964343185617656
      ],
      [
        0.7435741174978365,
        -0.5006289844076542,
        0.14476228359962645,
        -0.5035638789211655,
        0.21546097360286479,
        0.45326191756348294,
        1.1225554631829917,
        0.9050888460069095
      ],
      [
        0.36322062368826064,
        -0.5115328009238074,
        -0.15047548225056778,
        0.49351771725858434,
        0.411549870212662,
        -0.8096491997326215,
        -0.18145820301959228,
        0.3767271214886851
      ],
      [
        -0.43172315371156395,
        0.39013351379201605,
        -0.4471326554675203,
        0.46339159440980754,
        -0.03130853811654655,
        0.5368180820524784,
        0.05187353463609531,
        -0.44508136379370455
      ],
      [
        -0.2989204425375021,
        1.1715520286170276,
        -0.40935635729681524,
        0.7533165417448204,
        0.16698282521746843,
        0.5723838320904054,
        -0.4841242469532622,
        -0.01680378924727122
      ],
      [
        -0.3576741938917126,
        -0.1426126966597736,
        0.5386440086427714,
        0.027328662857232355,
        0.4166676653748783,
        0.6697034702004252,
        0.28143342236262514,
        -0.34979270643594124
      ],
      [
        -0.1876706346941043,
        0.6238628170544167,
        -0.626491156085031,
        0.5457505766964018,
        -0.5787639419455283,
        -0.09167510291684004,
        -0.04089779593355483,
        -0.279156522535729
      ],
      [
        0.6949463589725636,
        0.3156799288443168,
        0.5070460368965949,
        -0.6445262376297,
        -1.6124755596967704,
        1.055152658651633,
        0.694744925058334,
        0.8127837683225003
      ],
      [
        0.04092767526557098,
        0.8925191522648291,
        -0.390813656074403,
        0.25787519072845594,
        0.5662952541186715,
        0.5837264211501054,
        -0.47705865590961405,
        -0.3702582265396666
      ],
      [
        -0.6336920349681674,
        1.4054493316028451,
        -0.42904005943617296,
        0.6582744532864402,
        -0.1948563143254562,
        2.0499490507922125,
        -1.1891995070968862,
        -1.0982167341517741
      ],
      [
        0.7382268711487963,
        -0.1067318064911514,
        0.3782961552796951,
        -0.24034858748207652,
        0.14848737100351783,
        -0.12514854654490032,
        0.877691507887971,
        0.9529050650629035
      ]
    ],
    [
      [
        0.9032123365690921,
        0.057746502593783104,
        -0.8235515777813815,
        -2.5081748156021346
      ],
      [
        0.30263724351510696,
        -2.547158496993926,
        0.40300814592697354,
        0.6128902260562257
      ],
      [
        -0.03554212649323778,
        0.2510341624172456,
        -1.4254975004262433,
        -0.7424923282425185
      ],
      [
        -0.012099998715274946,
        -0.47960418235406777,
        -1.7864694188511523,
        1.4637519366981793
      ],
      [
        0.8523875341479255,
        -1.1277263387422116,
        0.5113472126061357,
        0.3984968404256799
      ],
      [
        -2.4880247510991595,
        0.15962057332141041,
        0.5098980104109792,
        0.7731126081000326
      ],
      [
        0.6382341713318282,
        1.2126017009433951,
        0.10436818838735286,
        -2.195812446990789
      ],
      [
        0.9611331361474444,
        0.04451416794188941,
        -0.39034731651879445,
        -2.678356447287768
      ]
    ]
  ],
  "biases": [
    [
      -0.4665165844470309,
      -0.15678987966465838,
      -0.05651982065869305,
      0.04338092834457054,
      0.05990683429798236,
      0.05805481857171243,
      1.6313897096978633,
      0.30692077946567026,
      -0.10579799479308842,
      -0.030286971028355213,
      -0.05373090287671081,
      -0.001875535370050458,
      1.2804413492167515,
      -0.4624041763431043,
      -0.7243308410893675,
      0.7205621459000444
    ],
    [
      0.8524459765237028,
      -0.2236963730049577,
      0.35802360450031007,
      -0.5022498380916668,
      0.1888977035541212,
      0.13542126961930603,
      1.0678998552771493,
      1.0993175295459365
    ],
    [
      -0.8335830961818547,
      0.9616780425065817,
      0.6070936652775363,
      0.025551013693508425
    ]
  ],
  "scaler_mean": [
    125.76854809730379,
    87.94605904679366,
    581.4344751764474,
    96.85300679729298,
    5.7481246264036505,
    45.439796413582705,
    25.894550256492774,
    1.50125
  ],
  "scaler_std": [
    65.98684225467429,
    20.828864237104217,
    144.84124016109516,
    1.671311134712993,
    2.546346083837256,
    14.4821571843176,
    3.976362076062357,
    1.1202671277423055
  ],
  "classes": [
    "NORMAL",
    "LOW_RISK",
    "MODERATE_RISK",
    "HIGH_RISK"
  ],
  "accuracy": 0.9233333333333333,
  "federated_round": 1,
  "last_aggregated": "2026-03-26T20:19:04.859408",
  "contributing_clients": 3
}